{"input_size": 4, "hidden_size": [10, 5], "output_size": 1, "weights": [[[0.5979271479193831, -0.24197837329103958, -0.2108471703969853, 0.13469297002080158, -0.4481235020073593, 0.5712496618725297, -0.3410914857938474, 0.20823175037204122, 0.12707061362639313, -0.14346774492172448], [0.022938506989664355, 0.4003688721148269, 0.40371902283773975, -0.2890045725193144, -0.47943211477871106, 0.5839281366240171, -0.34549553021615975, -0.04844815584059749, 0.02875683873945827, 0.4362668585088038], [0.2959586937216407, -0.4414679769144781, -0.45166515135048657, 0.03490905055489293, -0.06339144953180098, -0.30592941023750425, -0.19713680821490576, -0.1910289543399478, -0.18163407485213898, -0.4233084349185107], [-0.4521890974399478, 0.3766359764312703, 0.22480419393198126, -0.06469685569687345, -0.42288364714742577, -0.045774658299113, 0.4625141879140986, -0.2001290380967895, -0.33833701667748, -0.4836048790283748]], [[0.010167399734083427, 0.45016463093102704, 0.12138867433570054, -0.4172786408445222, -0.44497901352248403], [-0.1811658965705334, -0.3410405895976054, 0.1136380880685031, 0.2358810060015345, -0.027460648077904864], [0.42283870513097, 0.34844021536116543, 0.07390924169727142, 0.046889619485546485, 0.02666362321463156], [0.3170480345650215, 0.37508336054304525, -0.44688358026327885, 0.21198673185303463, 0.005513720601112161], [0.13709838988891565, 0.23924580389304528, -0.1747675476048881, 0.2462870645209122, 0.1304616996169049], [0.022590549323960207, 0.5792370248660266, -0.13927721699610984, 0.2027699092782837, 0.48481334949486865], [0.23435652762510795, -0.4110156413354017, -0.1638655429459135, 0.005332368980170976, 0.31978121852608776], [-0.026605069536309478, -0.4168015884758147, 0.1437505102856879, 0.18645921412797545, -0.4600982037142633], [0.30500082855952537, -0.4053634320946562, 0.0522069747805361, 0.4161567238708081, 0.30134800410466467], [-0.34684090340472296, -0.18927207980008287, 0.034708186661339194, 0.15221195557111575, 0.145384204688587]], [[0.3495706624827468], [0.6823865364786819], [-0.3308647885327551], [-0.27101791236701644], [0.04107515949970106]]], "biases": [[[-0.26239267158669505, 0.24951875409676072, -0.20497963771432215, -0.27069556627270464, 0.11269140956203627, 0.28096494330199184, -0.12911308693325874, -0.4381996739746133, -0.4133341658859621, -0.29855176354022345]], [[-0.4799341676981611, 0.38780773761487036, -0.07791663367228116, 0.12052875401143319, 0.4416616547047605]], [[0.37293113355486246]]], "activation_functions": ["relu", "relu", "sigmoid"]}