{"input_size": 4, "hidden_size": [10, 5], "output_size": 1, "weights": [[[-0.21275369947814915, -0.08096513903052083, -0.13628337948299818, 0.006062168033234437, -0.3021791237934466, 0.1939321565464018, 0.5779458453397626, 0.050036724468767974, 0.590500516716663, -0.21968536308312567], [0.04230460550882942, 0.47257772932362807, 0.5663376652625544, 0.4474747250759961, 0.14517485353500878, 0.502194913436013, -0.038312915551472995, 0.029497807438536677, 0.31392596526209315, 0.20154797320693016], [-0.24790429814820591, -0.4371958457564893, 0.5734382607784125, 0.24863490439352423, 0.11855277424631101, -0.4358914768231663, 0.29417913140619933, -0.06390823640310231, 0.5554420928108542, -0.4141048195751475], [-0.34459701157218814, -0.3031675278844522, -0.10756365443148329, 0.45067772851730536, -0.06416650652132208, -0.35813247178078234, 0.5240852123249358, -0.4700494262016782, -0.26899814136752187, -0.30510981283800337]], [[0.3168378105602272, -0.43935531276859263, -0.21171139858400434, -0.28067152732293843, -0.07932965197547026], [0.10663888733737292, -0.11374245978947128, -0.4129236988865176, 0.09933467889304437, 0.27025835799098963], [0.30034205550934234, 0.30192470274269617, 0.1705921215027395, 0.28178182646704586, 0.5142293421880934], [0.12969289146727986, -0.47658991047741217, -0.16856206900749293, 0.057563042518130825, 0.43107353303912105], [-0.45283965508841617, -0.36327069145865065, -0.41097595612829074, -0.4948808679878791, 0.04430660258123138], [-0.38385061232621, -0.15243798611888446, -0.28765642760598475, 0.42292070202310295, 0.4882088986729536], [-0.14491386431350622, 0.20212643190244894, 0.33366387961445565, -0.39537165498793125, 0.5689172122217476], [-0.03071164304086583, 0.0022673730695257992, 0.010213083375254617, 0.04540949059320443, 0.45522547745034264], [0.4838598237421716, 0.39308832576145425, -0.40528045778071553, 0.10954829302382141, 0.7580316432738409], [-0.39829480450188387, 0.15426334491788424, -0.027719294867544764, -0.3147042816525383, -0.3325256254163532]], [[0.5857264978567938], [-0.26642943187100243], [0.44112885697242266], [0.12293741379352408], [1.1367139679416474]]], "biases": [[[-0.20809352093269085, -0.46427032021386205, 0.26129521003991824, 0.21682638405212848, -0.06680331381846559, -0.29444710289026854, -0.06591144106881154, 0.19517628410451285, 0.4235382496013844, 0.20693930801247323]], [[0.49758321874603284, -0.3666930863419513, -0.14164518336580567, -0.497717136725509, 0.6408587987310719]], [[0.5615177690252849]]], "activation_functions": ["relu", "relu", "sigmoid"]}