{"input_size": 4, "hidden_size": [10, 5], "output_size": 1, "activation_functions": ["relu", "relu", "sigmoid"], "weights": [[[-0.30594467439099576, 0.5395485079711383, 0.39773928919839396, -0.47134296103283585, -0.190447844019219, 0.027331649039182792, 0.27187437866325176, 0.3525054159459101, -0.182074882591175, 0.444474577287313], [0.4552133680112947, 0.4785996974773403, -0.09996835632931765, 0.4030026854617064, -0.04330242376661919, -0.016379627162801804, -0.09310038933964282, 0.45227842252390615, 0.10394500357021763, -0.1572025200562613], [0.34087180009271856, 0.38525121415914126, -0.29940417285350635, 0.4600349850209714, -0.21134073358748862, -0.2677457847832718, -0.41297833800197964, 0.17947638391918952, -0.35868061120595396, -0.06117698115085201], [-0.2761160385773251, 0.3572271915882725, 0.019779342274007933, -0.2735252582019434, -0.34318985851166484, -0.2532158203414764, -0.4589974130021639, 0.23037739246762956, -0.27055184391672316, 0.4381842683087435]], [[0.026803876058137832, 0.2855506523560778, -0.2285975502665859, 0.44201946228159505, 0.20153027773749924], [-0.1410167839101477, 0.44010372970658124, -0.4902344539567596, 0.4732170660580901, 0.015494983274167654], [-0.3042755949375737, -0.07566070891739302, -0.21206770040559086, 0.010706017146829462, 0.4196919327102702], [0.4896942903059799, -0.03925210095190444, -0.42206146014273294, -0.17779752743616, 0.23385971941136294], [0.36645694450971866, -0.1164062250874055, -0.4874960246893004, -0.45916516206546854, 0.008373204728559847], [-0.2279306372042571, 0.4122279973305604, -0.44769978040227965, 0.36833268082480475, -0.12143913411710416], [0.23545619881662505, 0.21307066564351668, -0.4332098676145101, 0.1388813959573443, -0.18523261677018796], [0.14312620466998371, 0.10336448692062217, 0.09570705667357204, 0.4417086972503742, 0.4259913492280818], [-0.38938495389188943, 0.045084711550713696, -0.1351610249582037, 0.2790462657263456, 0.13456863683113496], [0.14314480028356813, 0.5110513360619973, 0.32561297971690206, 0.12957986918959735, 0.4406126949058752]], [[0.3010614993619838], [0.5118457567057562], [0.4809222590995226], [0.16211346154531991], [0.405355830368271]]], "biases": [[[0.28701609048971827, 0.06884050027512903, 0.12725831865783713, -0.3729189834305477, -0.3771185703376262, 0.486038020203505, 0.3072692597121543, -0.15261228866572732, 0.013970842761674374, 0.36751838179220553]], [[-0.4717073496684846, 0.04596710125388059, 0.36750645456462794, 0.4862978858181829, -0.3701059821819981]], [[0.4826042066323222]]]}